
\data\
ngram 1=13

\1-grams:
-0.6415685	</s>
-99	<s>
-1.264818	eight
-0.9637879	five
-1.264818	four
-1.264818	nine
-1.185637	one
-1.185637	seven
-1.060698	six
-1.662758	ssix
-1.009545	three
-1.060698	two
-1.11869	zero

\end\
